//Numpy array shape [3, 3, 4, 8]
//Min -0.392594307661
//Max 0.220079779625
//Number of zeros 0

#ifndef W5_H_
#define W5_H_

#ifndef __SYNTHESIS__
conv2d_1_weight_t w5[288];
#else
conv2d_1_weight_t w5[288] = {-0.2057706565, -0.0943019539, -0.1322076470, -0.0487800390, -0.1105542928, 0.0675270110, 0.0893937424, 0.0961625725, -0.3337182701, 0.2054565549, -0.3803601861, -0.0022638803, 0.0974576771, 0.2200797796, 0.0273031686, -0.1188477278, -0.1838301867, -0.0482982174, -0.2648268044, -0.0242141057, -0.0686728880, -0.1942846328, 0.0684239343, 0.0437824391, -0.1436853260, -0.0660044700, -0.0802651420, 0.1429402381, -0.0097132474, 0.0394341834, -0.0496614613, -0.0805005133, 0.1332702041, -0.0222133100, -0.1303051114, -0.0052501662, 0.1038900837, -0.1494568139, -0.0689048767, -0.0660262257, -0.0609326139, -0.2606941462, 0.2144704461, -0.2285290211, -0.1682444364, 0.0267437231, -0.2701236606, 0.0559622720, -0.1706785262, -0.0526773147, 0.1088528335, -0.0167852249, -0.0748251900, 0.0216064584, -0.0455151014, -0.0782012343, -0.0065580062, -0.1598033756, 0.0383696221, 0.0204458032, 0.0528726317, 0.0336532779, 0.1210148856, 0.1067363843, -0.0684041306, -0.0210759658, -0.1367720813, 0.0020269775, -0.1709918231, -0.0099198362, 0.1626445949, -0.1132271364, 0.0869194865, 0.0460513122, -0.0393233001, 0.0249638669, 0.1246604025, 0.1351849735, 0.0419678427, -0.0274143666, 0.0707955658, 0.0646059290, 0.1900593936, 0.1233530194, 0.1490177512, 0.1338326186, -0.0694692731, 0.1090999171, 0.0237373170, 0.1242919639, -0.1041782126, 0.1313388944, -0.0841387957, -0.0468255356, -0.0579526946, -0.1757683903, -0.2866175771, -0.1437168419, 0.0406404324, 0.0248485617, -0.0343366936, -0.0493250266, 0.0746289343, 0.0214375034, -0.0234026629, -0.1435928643, -0.1730027199, -0.3474999368, -0.3925943077, 0.0660563707, 0.0782242268, -0.0657402799, 0.1907178462, -0.0370322131, -0.0383217782, 0.0454307348, -0.0773089975, -0.1711298227, 0.0821773484, -0.1773559302, -0.0286009908, -0.1663109511, -0.0704103634, -0.0410205126, -0.0469037220, -0.1820278466, -0.0998240560, -0.0139691830, -0.1731853336, 0.1186055169, -0.1795382202, -0.2460164875, -0.1731572598, -0.0259724110, 0.0432428308, -0.0140802274, -0.0517654829, 0.0670689568, -0.1031503975, -0.1735055596, -0.0097754747, -0.1407355666, -0.0421446078, -0.0105757508, -0.1539277285, -0.0341600552, -0.0675893724, 0.0557526387, -0.1960984766, 0.1222772971, -0.1071319580, 0.0218698606, 0.0385557115, 0.0302696694, -0.0078776469, -0.0959754586, 0.1317384988, 0.1210570633, -0.1838522553, -0.2329292595, 0.0773111209, 0.2005306631, 0.1515899450, -0.1730451435, 0.1482978314, 0.0246430263, 0.0048303814, -0.0133739794, -0.1801733673, 0.0489816070, 0.0553089157, 0.1492676288, -0.2748740911, 0.0601218976, -0.0238020532, 0.1767367125, 0.1258409917, -0.1875040084, 0.0463993363, 0.1858959645, 0.0809321478, 0.0100011621, -0.1336485893, 0.0666662380, -0.1802615076, -0.0899190605, 0.0204202104, -0.1380028576, 0.1334073097, -0.0031480074, 0.1890565753, 0.1562141925, -0.0480061322, -0.0556585602, -0.0719531551, 0.0325658880, 0.1439703256, -0.0735133886, -0.1171856821, -0.0081959218, 0.1507462561, 0.1087999269, -0.1533657908, -0.3275350332, 0.1111520976, 0.1998745948, -0.1979913116, 0.0004703516, 0.1802842915, 0.1317623556, -0.0873063728, -0.0473797172, -0.0609427243, 0.1024021953, -0.1832351238, -0.1667860597, -0.1507731974, 0.0277118348, 0.1442595571, 0.0613356493, 0.0288116541, 0.0602872558, 0.0707625598, 0.2141289413, 0.0963645577, -0.0616190583, -0.0913149565, 0.0829543173, -0.1624401510, 0.1261536181, 0.1564390361, -0.0050798478, 0.1210407615, 0.1736607552, -0.0672604889, 0.1374604702, -0.2031069994, -0.1564487666, 0.1240078583, -0.0340307876, -0.0298670121, 0.0817951187, -0.1337739229, 0.0004845765, 0.0892978236, -0.2149936557, -0.2835772634, 0.2145219445, -0.1289981008, -0.0348871648, -0.1394333839, -0.1564882696, -0.0819586590, 0.0623825043, -0.2664123178, -0.1105528921, 0.0540159270, -0.1241454110, -0.0962905064, 0.0611122958, -0.0729354396, -0.0017907278, 0.1341899633, -0.2076162249, -0.0702394471, 0.0668865219, 0.0471439287, -0.0216845963, 0.1354894340, 0.0685651004, 0.1431150734, -0.2288334221, 0.1080024838, 0.0419746637, -0.1486567557, 0.0452443026, 0.0973439962, 0.1572865099, -0.2316359580, 0.1066635773, -0.0101111317, -0.0910554156, -0.0276224073, -0.0502178334, 0.0515917763, -0.0310943928, -0.2105148435, -0.2220397890};
#endif

#endif
