//Numpy array shape [3, 3, 8, 16]
//Min -0.328285634518
//Max 0.167529061437
//Number of zeros 0

#ifndef W8_H_
#define W8_H_

#ifndef __SYNTHESIS__
conv2d_2_weight_t w8[1152];
#else
conv2d_2_weight_t w8[1152] = {-0.0989781097, -0.0444353037, 0.0146714877, -0.0703330338, 0.1593852788, -0.0350581519, 0.1333943903, 0.1252616048, -0.0431057401, -0.1357310414, -0.0573456809, -0.1740923077, 0.1102854609, -0.0573760010, 0.0599714965, -0.1092503071, 0.0209122356, 0.1044034585, -0.0563339852, 0.0906793550, 0.0047374396, -0.0705939159, -0.1301593035, -0.0936630815, 0.0815095007, -0.0735755265, -0.0885521546, 0.0592934340, -0.0288253408, 0.1011527851, -0.0409706645, -0.1724641025, -0.1487516761, -0.1171684787, 0.1015613899, 0.1001860127, 0.1170941442, -0.0275874268, 0.0858713016, -0.0956754833, -0.0260023102, -0.1630706042, -0.1430728883, -0.0364441499, 0.0355499536, -0.1028768122, -0.1550559253, -0.0140447943, 0.0917772427, -0.0779419765, -0.0225229133, -0.0330257006, 0.0135783134, 0.0703977719, -0.0826527774, -0.0046620746, -0.0996770561, 0.0595191829, 0.0610336997, -0.0848970413, 0.1213312596, -0.0675811470, 0.0688341409, 0.1385991275, -0.0065810191, -0.1075076982, 0.0383736677, 0.0565944500, -0.1723619103, 0.0428424887, 0.0979940742, 0.0596980751, -0.0334129110, 0.0546618588, 0.0100899767, -0.0420529395, 0.1016425490, 0.1158956587, -0.1103358567, -0.0284640435, -0.1220303625, 0.0532107055, 0.0020644390, 0.0073177461, -0.1052747145, 0.0791046098, 0.0868148506, 0.1179902703, 0.0145803560, -0.1466611028, -0.1223797798, 0.0816324353, -0.1227121279, -0.0127659263, 0.0897261798, -0.1130027920, 0.0769453421, 0.1285471320, 0.0965027511, -0.0717950538, 0.1155980453, -0.1706427485, -0.0679745823, -0.0184625518, 0.0347464420, 0.0574404746, -0.0011928939, 0.0798717812, -0.1350658238, 0.0788343623, -0.0252870806, -0.1002217308, -0.0816283450, 0.0520128645, 0.0662258789, -0.0536911637, -0.0442858376, -0.0783103704, -0.0373554863, -0.0741936490, -0.0757833049, -0.1390259564, -0.0693040714, -0.1663784683, 0.0851201043, -0.0282151662, -0.1600213051, 0.0089441007, -0.0346050188, 0.0679993406, -0.1140613928, -0.1543440521, 0.0579921901, 0.0840933993, 0.0721813589, -0.0047583668, -0.1321246475, -0.1771165431, 0.1036460623, -0.1505727172, -0.1379696876, 0.0211978871, -0.0867266729, 0.1140514538, -0.0588520505, -0.0124075543, -0.0568089858, 0.0114694461, -0.0228055455, 0.0231291801, -0.0533493981, -0.0113996631, -0.0154859982, -0.1474122405, -0.1590542793, -0.0292971227, -0.1579898745, 0.0213698093, 0.0334242694, -0.1312763542, 0.0256712958, -0.0004726670, 0.0181139540, -0.0898006186, -0.0627054051, -0.1552080661, 0.0387769192, -0.0342120454, -0.0693100244, 0.0958523154, -0.0635838956, -0.1227611899, -0.1006530300, -0.1150840819, -0.0265245382, -0.1700743586, 0.0016507833, 0.1009061560, -0.1198006272, 0.0777714550, -0.0050699986, 0.0974464342, 0.0909334049, -0.0912284255, 0.0367337167, 0.0845477805, 0.0727805868, -0.1146715358, 0.0442877114, 0.1240104586, -0.0209649131, -0.0269665476, 0.1095049679, -0.1073569134, -0.1184024438, 0.1139410585, 0.0572274029, -0.0279217009, -0.1484866440, 0.1398785710, -0.0994051248, 0.0499626361, 0.0014768998, -0.1568154246, -0.0804819092, 0.1443948597, 0.0316287205, 0.0940378085, 0.0296433792, -0.0078791613, 0.0250390284, 0.0481430627, -0.1480320990, 0.1052303687, -0.1057402417, -0.0387403443, 0.0887336358, 0.0259932987, -0.0939284489, 0.1213178337, -0.0490737781, -0.1456230581, -0.1145227551, -0.0447992347, -0.1513525546, 0.0555830374, 0.0315979645, -0.0754894763, 0.0818313211, -0.1637042165, -0.1456282586, -0.0974513441, -0.1310266554, 0.0697726458, 0.0007757779, 0.0655788854, -0.1435544640, 0.0315322354, -0.0935301781, 0.0078927288, 0.0633003488, -0.0574859530, 0.0192404334, 0.0051397709, -0.0073922244, 0.0841958001, -0.0764492825, 0.0650019571, -0.0275756512, 0.0617146119, -0.0148726692, 0.0113793435, 0.0617124103, 0.1425170600, -0.1121271178, -0.1589492112, 0.0626380444, 0.0658723116, 0.0894853026, -0.1083063856, 0.0649187714, -0.0813088715, -0.0600405671, -0.0481049567, -0.1425146163, 0.0831935704, 0.0296750888, -0.1299909800, 0.0584232360, 0.1046180278, -0.0169059429, 0.0921512842, -0.1105217412, 0.1372813880, -0.1338661760, -0.0275303219, -0.0296618305, -0.1650758386, -0.0127817327, 0.0157995615, -0.1903510243, -0.0758400783, -0.0456397757, 0.0570705049, 0.0271830019, -0.1485069543, -0.0478002056, 0.0879299566, -0.0353628658, -0.1409437507, 0.1392156035, -0.0298928581, -0.0644677132, -0.1502154022, -0.0065956493, 0.1480985582, -0.0263165962, 0.0684054866, 0.1372160316, -0.0457757339, -0.0921593755, -0.1171050221, 0.1246211454, -0.0309399962, 0.0455680825, -0.2024870515, -0.0721206740, -0.0081500951, 0.1075197235, -0.0262585767, 0.0711132139, -0.0253065806, -0.0719593614, -0.0303499401, 0.0504080951, -0.0100229373, 0.1089199781, -0.0362717099, -0.0779122412, 0.0258780606, 0.0098664640, -0.0653258860, 0.0070197131, -0.0395129584, -0.1245057508, 0.0833737254, -0.0116883973, -0.0638852194, 0.0951067507, -0.1643740982, -0.1585223377, 0.0593713857, -0.1424587816, -0.1262219399, 0.0900732502, -0.1250692308, 0.0444484316, -0.0545968674, 0.0290018134, -0.0595904328, -0.0770351738, 0.0851561353, -0.0313042775, 0.0009760560, -0.0327116698, -0.1559370458, -0.1004930288, 0.0641627610, 0.0231473371, -0.1591530889, -0.0707354695, -0.0192181095, -0.1346204281, -0.0981820673, -0.0413784422, 0.0996527225, 0.0169580095, -0.1292104274, 0.0035633529, -0.0977759585, 0.1675290614, 0.0373555459, -0.0850845128, -0.1326018423, 0.1387068927, -0.1512204707, 0.0820062310, 0.0767670050, -0.0529143624, -0.1394854337, -0.0938110352, -0.0207480844, 0.1072004363, -0.0780684352, -0.1270391494, -0.1110880896, -0.1045197621, -0.0893837437, 0.0698325261, 0.0476166494, -0.0616756566, -0.0685727820, -0.0208669808, -0.1207744032, 0.1290367395, -0.0591922291, -0.1055215597, -0.0472325310, -0.1489118338, 0.1349906325, 0.0655425489, -0.2026691586, -0.0360783897, 0.1267869174, 0.0297387652, -0.0613302924, 0.0320331864, -0.0412992947, 0.0619849153, -0.0429643020, 0.1173634008, 0.0999586582, -0.1191403791, -0.0818150416, -0.1625573039, 0.0831009969, 0.0752514526, -0.0965860486, -0.1705815494, -0.1334000826, -0.1351378560, -0.0412948877, -0.0047592884, 0.0469875149, 0.0817764327, -0.0699995011, -0.0571915805, 0.0623096675, -0.0310939867, 0.0027139569, -0.0446226038, -0.0432944708, -0.0601008646, 0.0688262805, 0.1058198959, 0.0072893770, 0.0246946793, 0.0870804861, -0.1331829131, -0.1695834100, -0.1149534434, 0.0206792410, 0.0452047922, 0.0748898610, -0.0860509649, -0.0197406653, 0.0046916828, -0.1416644454, 0.0465334207, -0.1014809757, -0.0691583902, 0.1091660261, -0.1163983494, -0.1480071992, 0.0282159802, -0.1294317394, 0.0717325658, -0.0374280773, -0.0976833701, -0.0499755107, -0.0275342502, -0.0683799312, -0.0335532613, -0.0586853698, -0.1484873593, -0.0175823029, 0.1106109321, 0.0137870740, 0.0970539227, -0.1291744560, -0.0604917780, -0.1264291704, 0.0927579552, -0.0494909547, -0.1236189231, 0.0946921036, 0.0444307253, 0.0366082005, 0.0022370110, 0.0753063411, 0.0643344522, -0.0930257961, -0.1129278690, -0.1676190346, -0.0312349424, -0.1451754570, 0.0820412487, 0.0092061814, 0.0447548255, -0.1439187527, 0.1054325625, -0.0538400933, 0.1483132988, 0.0158566795, 0.0375727713, -0.1547606289, 0.0779403150, -0.0355099849, 0.0367925093, 0.0098703476, -0.0481798723, 0.0017007290, 0.0845449939, -0.0773150101, 0.0653254688, -0.1147710383, 0.0556124896, -0.1587227285, -0.0719805583, 0.0123333298, 0.1249432936, -0.0888731256, 0.0296558421, -0.0407047831, 0.1520709246, 0.1101172864, -0.1380963027, -0.0866998956, 0.1030491367, 0.0805360749, -0.1223445162, 0.0964334309, -0.1153146327, 0.0132373972, 0.0063751331, 0.1399510801, 0.0804108307, 0.0531002507, -0.0239948686, 0.0867849961, -0.0170284156, -0.0420528837, 0.0262957476, -0.1543163210, -0.1297591031, -0.1499416232, -0.1285409480, 0.0406455137, 0.0530953705, -0.0736160949, 0.0522040799, -0.0345659591, -0.1271517426, 0.0693787858, 0.0231577922, -0.0671914294, 0.0841990411, -0.1191906482, 0.0924004316, -0.0552453659, 0.0071459552, -0.0900204703, 0.0572796576, -0.1070368737, -0.0711910129, -0.0102205919, -0.1012405530, -0.0410652608, -0.0172830708, -0.1349588633, -0.1229792312, -0.0939608291, -0.0389450639, -0.1602363288, 0.0518819503, -0.1304672062, -0.1158413291, -0.0541891716, 0.0784772187, -0.1225415468, -0.1271463484, -0.0283394568, -0.1219478399, -0.1057745218, -0.0936419591, -0.0136849592, -0.1175451949, -0.0770363510, 0.0259612054, -0.1221230105, 0.0276071336, 0.1416159123, 0.0735439733, 0.1025259867, -0.1141770855, 0.1233981326, -0.1565675288, 0.1064434797, -0.0340955183, 0.0189636834, 0.1218732446, -0.0307507906, 0.0791374072, -0.0483558588, -0.0166931618, -0.1560718268, -0.0639139116, 0.1250270009, 0.0560586005, -0.1015117764, 0.1344168931, 0.0801397786, -0.1550492793, -0.0844581202, 0.0371362306, -0.0011290932, 0.1048263758, -0.0148419933, -0.0510115102, -0.1231372803, -0.0469286665, 0.0703344718, -0.0425140038, -0.0616359487, -0.1004309654, -0.0560821965, -0.1114402339, -0.0905804187, 0.1479378045, -0.0122757312, -0.0615951419, -0.0534694791, 0.0518837310, -0.0698686615, -0.1278470159, 0.0744438171, 0.0071957600, -0.2238982022, 0.0722005814, -0.0763328448, 0.0141659994, -0.0460247248, -0.0759938583, -0.0212994330, -0.1651242673, 0.0291746613, -0.1128942221, -0.0198681541, 0.0295660235, -0.0720260218, -0.0749828890, -0.1590105146, -0.0148933670, 0.1043352634, 0.1446747929, 0.0283579230, -0.0706084743, -0.0113181993, -0.1264725327, -0.0577265844, 0.1142146662, 0.0321038812, -0.0973896012, -0.0392309390, 0.1379549205, 0.1336915642, 0.0565354042, 0.1381847709, -0.1063365936, -0.1519741416, 0.0465931781, -0.0112791145, -0.0935841426, 0.1126988456, 0.0415290929, -0.0995109826, -0.0706552565, -0.0228954721, -0.0579507723, -0.0118212625, 0.0136067253, -0.0754757673, -0.0777943581, -0.1534187794, 0.0146675501, 0.0014801117, -0.0120832734, 0.1094349101, 0.1153012812, -0.1111674234, 0.0127339493, 0.0852027535, -0.0722048134, 0.1328028738, 0.1029445827, 0.0616446175, 0.0848331824, 0.0378292128, -0.0268867314, 0.0424013026, 0.0311817322, -0.1570220441, 0.0466941595, -0.1264470369, 0.1421775967, 0.1384624690, 0.0277320165, -0.1611792743, -0.0748298019, 0.0710616335, -0.1486633718, 0.1267044842, 0.1152491122, -0.1134772673, -0.1684847325, -0.1026852354, -0.1728655845, 0.0192549992, -0.1248036698, -0.1097494513, -0.1548280120, 0.0553155020, -0.0463746265, 0.0004869347, 0.0412435718, -0.0389000550, -0.1174466610, 0.0573493764, -0.1365986913, 0.0819274336, -0.1323964894, -0.1520833820, 0.0139018847, -0.0297725424, -0.1436231732, -0.0211323462, 0.0665028915, -0.0978632644, -0.0009501501, 0.1333505958, 0.0813820884, -0.0579783283, 0.1186394244, 0.0123440092, 0.0978852361, -0.0292982329, 0.1537121385, 0.0016297386, -0.0374921747, -0.0542906262, -0.1057153270, 0.0284393858, 0.0269437544, 0.1224817634, -0.0362654515, -0.1129303947, -0.0439516939, 0.1244102567, -0.1484832764, 0.0857891962, -0.0497535504, 0.0867817998, 0.1545211673, -0.1093750969, 0.0855850428, -0.0797585770, 0.0836233124, -0.0769753978, -0.0430817008, -0.0841136500, -0.0789042562, 0.0108967563, -0.1327811182, -0.0533360504, -0.0327609442, -0.0816222355, -0.1103296727, 0.0050891568, -0.0916520283, -0.1471209526, 0.0867846087, 0.1616735160, 0.0582391731, 0.0288768485, -0.1422064602, -0.0207439214, -0.0713722184, -0.1744963527, -0.0934129953, -0.1704660505, -0.1621728241, 0.0575558692, -0.1013484970, -0.1377528608, 0.0146066817, -0.0771488026, 0.0123721641, -0.1611643285, -0.0363936536, -0.0308815408, -0.1679751426, 0.0112457303, 0.0819848701, -0.0690337941, -0.0790328309, -0.1132675484, 0.1484372616, -0.1274253577, 0.0158520862, 0.1330609918, -0.1591951102, -0.0172563735, 0.0618862621, -0.1909512728, -0.1115427688, -0.0092394548, -0.0964039415, -0.1621983945, -0.0479702875, 0.0608970597, 0.0591562949, 0.0551650189, -0.1268135756, 0.1031249985, -0.0105345054, 0.0889108181, 0.0481011346, -0.0187190101, -0.1383775473, 0.0415133834, -0.1928825080, -0.0672479942, -0.1122320592, -0.0180160012, 0.0905848965, 0.1321479231, -0.0081342533, 0.0044959234, 0.1394347548, -0.1211450025, -0.0743982419, 0.0317206979, 0.0084200446, 0.0748147964, 0.1380561888, -0.0419924408, -0.0744393617, 0.0422777720, -0.0086872485, 0.1166787297, 0.0725529194, -0.0136445463, 0.0220226701, 0.0584093742, -0.0688727051, -0.1488515884, 0.0581618324, 0.0529876091, -0.1142656505, -0.0713098794, 0.1448835880, -0.1348385662, 0.1070931628, 0.0850145295, 0.1536598951, 0.0880235061, -0.0715771765, 0.1145643517, 0.0783227757, -0.0660520196, -0.0984579623, -0.0897345766, -0.1459152699, -0.0993453786, -0.1380023509, -0.0068682283, -0.1232390925, -0.1245484278, -0.1231047586, 0.0460240953, -0.0433581248, -0.1606526673, 0.0065412009, 0.0819442868, -0.1275678128, 0.1299732625, 0.0331109986, 0.1297633797, -0.1476798058, -0.0149234002, 0.0850510672, 0.1012837514, 0.0217104238, 0.0313703567, -0.0287221707, 0.0430274494, 0.0254017375, 0.0681863949, 0.0603284352, -0.0360585898, 0.0168183912, -0.1034900397, -0.0881426334, 0.0694892481, 0.0900352448, -0.0719885081, -0.0742951259, -0.0249370504, 0.0458545461, 0.1178560480, -0.0848044753, -0.1571501791, -0.0419345200, 0.0300071072, -0.1033454761, -0.1561767012, -0.0826963857, -0.1634180099, 0.1201440915, 0.0788791999, -0.0052686334, 0.1229050159, -0.0019127977, -0.0921141431, -0.0520447865, -0.0307868347, 0.0687471479, -0.1476109475, 0.1280740499, 0.1296086311, -0.0619261377, -0.0704087317, 0.0229930971, -0.0667329058, -0.0551508181, -0.1143098474, 0.0959921479, -0.0039949426, -0.0226535462, 0.0624230467, -0.0980914980, -0.1072789878, -0.1492814571, 0.0548213348, 0.0482194014, -0.1653566211, -0.0707363188, -0.0125197265, -0.1494731754, -0.0934719592, 0.0241692532, -0.1240577996, -0.1260884106, -0.0785344616, 0.1558280438, 0.0114966426, -0.0342280045, 0.0359246135, 0.0293287970, 0.0560826249, 0.0028373441, -0.0157899074, 0.1267640144, -0.0970732719, -0.0876840651, 0.0899525955, 0.0334284380, -0.0657398626, 0.0273537748, 0.0583985932, 0.1534146816, -0.0337542593, -0.0568474047, -0.0806817785, -0.1253290027, -0.1106234044, -0.1758989096, -0.1569388062, 0.0684407949, 0.0878711715, 0.0289209746, -0.1225351468, -0.0800388455, 0.0915211216, -0.0312946700, -0.0147345057, -0.0612968542, 0.0733954683, 0.0372870900, 0.0761836842, 0.0331739672, 0.0440996662, -0.1184495166, -0.1619983315, 0.0639324486, -0.1534838974, -0.0147953574, 0.0630108267, 0.0444616228, -0.0167584531, -0.2055329233, -0.1759641469, -0.0712927431, 0.0404647067, 0.1176579893, 0.0502391756, -0.0381823070, -0.0125908526, 0.1139352396, -0.0800657198, -0.1631481200, 0.0524661206, 0.1055731624, 0.1189113110, 0.0090702763, -0.0252206326, -0.0627313703, -0.0019845068, 0.0103453714, -0.1061960980, -0.0691697747, -0.0117542725, -0.0516342074, -0.1251807511, 0.0632103235, 0.0828117654, 0.1458181739, 0.1297198087, -0.0758631006, -0.0798317865, -0.0218581669, 0.0290541183, -0.0071989410, -0.1579953730, -0.1606988311, 0.0498240292, -0.1160742044, -0.0470301248, -0.0046417527, 0.1268698275, 0.0591267347, -0.2216001302, -0.0374887362, -0.0038881483, -0.0232554618, -0.0875222981, -0.1374958456, 0.0943020135, 0.0030607518, -0.1072067916, -0.0160184875, -0.1356043220, 0.0463881642, -0.0471873395, -0.0733066052, 0.0369232036, -0.1021569222, 0.0015143686, -0.1449512541, 0.0383120291, -0.0448413491, -0.1861297786, -0.1739023179, -0.0576482899, 0.0467819534, 0.0311121903, 0.1552818865, 0.1392573267, 0.0981738195, -0.1864824444, -0.1058766842, 0.1380269825, -0.1302569956, 0.0155434050, 0.0574994199, 0.0892979205, 0.1114610955, 0.0873404369, 0.0939342603, -0.0422321670, 0.1088448167, -0.1627418548, -0.0024867894, -0.0106910160, 0.1194975078, 0.0148492334, 0.0089659132, -0.0503191017, 0.1058451086, -0.0304718446, 0.1060101986, 0.0791257396, -0.0633552596, -0.0412264578, -0.0307158083, -0.1786441803, -0.0038021728, -0.1416059285, -0.1236924082, 0.0225969013, 0.1295887381, 0.0613438971, 0.0383516140, -0.0461249501, 0.0990384445, 0.1155781001, -0.0637375340, 0.0488137975, -0.1438077837, 0.0386246964, -0.1396130323, 0.0826034099, -0.0141872680, -0.0765563324, 0.0733172670, 0.0124103073, 0.1102148518, -0.1110325679, -0.0681103393, 0.0219462980, -0.0797837153, -0.0411053039, -0.1793500036, -0.1625015438, -0.1217869148, 0.0608858354, -0.0078204833, -0.0048853899, -0.0767829046, -0.0729362592, -0.0230183527, -0.0217985976, -0.0141899278, 0.0682077408, -0.0733385906, -0.0728040189, -0.0168861207, -0.0019992723, 0.0307855196, -0.0905150622, -0.0952531099, 0.0340609401, -0.0549753942, -0.0025656421, -0.0909415707, -0.2179379016, -0.1244237050, 0.1452845931, 0.0028958565, 0.0178317968, -0.1366373003, 0.0965671390, -0.0532343239, -0.0287965257, -0.0490237586, 0.0147082862, -0.3282856345, -0.1490239203, 0.0249837525, 0.0851139873, -0.1228234023, -0.1095490977, 0.0212704651, -0.0657942668, -0.1325885206, 0.0605977774, -0.0448608808, 0.0757891834, 0.0859480053, -0.1083270237, -0.0973479003, -0.1358787417};
#endif

#endif
